tree
version=v4
num_class=1
num_tree_per_iteration=1
label_index=0
max_feature_idx=49
objective=binary sigmoid:1
feature_names=total_changed_lines added_lines deleted_lines changed_files_count max_file_changed_lines code_files_count test_files_count has_only_test_change has_only_doc_change code_lines_ratio modified_methods_count max_method_complexity max_method_lines max_nesting_level has_new_dependency has_database_migration has_api_change has_breaking_change has_unit_test unit_test_coverage test_coverage_change new_test_count test_to_code_ratio ci_build_passed ci_unit_test_passed ci_lint_passed lint_issues_count security_vulnerabilities code_smells_count author_total_mrs author_mrs_last_30d author_merge_rate_30d author_revert_rate_30d is_first_mr is_core_contributor author_days_in_repo author_avg_mr_size author_bug_fix_count_30d commit_count avg_commit_size commit_message_quality repo_importance_score is_repo_owner is_maintainer involves_payment involves_pii involves_auth involves_security modifies_critical_file has_todo_or_fixme
feature_infos=[1:220] [0:147] [0:151] [1:10] [5:167] [0:6] [0:5] [0:1] [0:1] [0.16958288044273359:0.94152609048028635] [0:10] [1.341005843944862:14.635212026665208] [10:150] [1:8] [0:1] none [0:1] none [0:1] [21.043244282227171:94.918573290219939] [-14.855230784928333:14.46072313437115] [0:6] [0.032927024589142997:0.79386454086695224] [0:1] [0:1] [0:1] [0:10] [0:3] [0:8] [1:500] [0:9] [0.35614614982919751:0.99440441826015336] [0.0010394456188388:0.29039187329954119] [0:1] [0:1] [2:2000] [10:800] [0:6] [1:8] [10:228] [4.5082554205665524:9.686615344394264] [3.543789477281833:9.9075623366449364] [0:1] [0:1] none none none none [0:1] [0:1]
tree_sizes=963 1078 976 969 1078 981 1083 1083 972 1083 1176 1177 973 1073 1160 1065 1191 1184 1195 1197 1081 1057 1190 1192 1287 1160 1084 1083 1076 1183 1044 1046 980 984 1177 1060 1086 1079 1180 1081 1072 971 1176 1077 1292 1182 1197

Tree=0
num_leaves=8
num_cat=0
split_feature=8 7 35 2 20 0 40
split_gain=18.8599 13.708 8.99824 9.17964 5.19388 6.58455 6.90545
threshold=1.0000000180025095e-35 1.0000000180025095e-35 18.000000000000004 20.500000000000004 -4.058363067779986 48.500000000000007 6.507685840247631
decision_type=2 2 2 2 2 2 2
left_child=1 2 -1 4 -4 6 -6
right_child=-2 -3 3 -5 5 -7 -8
leaf_value=-0.38565056530940567 -0.31056218306292294 -0.33181184522445023 -0.49567503503909344 -0.51228416675977295 -0.45209512761505993 -0.49084740225376289 -0.35694756682089746
leaf_weight=3.8193750381469824 2.8645312786102286 2.387109398841857 3.3419531583786108 7.4000391364097586 3.3419531583785922 2.6258203387260437 4.0580859780311584
leaf_count=16 12 10 14 31 14 11 17
internal_value=-0.430439 -0.443384 -0.454779 -0.467891 -0.442528 -0.424848 -0.400285
internal_weight=29.8389 26.9743 24.5872 20.7679 13.3678 10.0259 7.40004
internal_count=125 113 103 87 56 42 31
is_linear=0
shrinkage=1


Tree=1
num_leaves=9
num_cat=0
split_feature=7 35 2 35 12 31 36 2
split_gain=9.36937 6.03112 6.85324 7.21125 5.02495 3.01805 1.30091 1.28852
threshold=1.0000000180025095e-35 18.000000000000004 22.500000000000004 184.50000000000003 23.500000000000004 0.67074601985785887 45.500000000000007 49.500000000000007
decision_type=2 2 2 2 2 2 2 2
left_child=1 -1 3 5 -5 -3 -7 -4
right_child=-2 2 7 4 -6 6 -8 -9
leaf_value=0.047640297532180187 0.093230598827740541 0.012538089759805054 -0.06879646917281261 -0.00046279418655107536 0.087056697181098056 -0.076035436968051387 -0.024484113925946543 -0.021544255238212018
leaf_weight=4.0989516824483934 2.4324312806129447 3.0964884310960787 5.3984351605176908 3.1014130264520636 3.130688264966011 2.3672083020210266 3.5758077055215836 2.6065181046724319
leaf_count=17 10 13 23 13 13 10 15 11
internal_value=0.00106365 -0.00725331 -0.0172963 0.00209836 0.0433934 -0.0259879 -0.0467638 -0.0544831
internal_weight=29.8079 27.3755 23.2766 15.2716 6.2321 9.0395 5.94302 8.00495
internal_count=125 115 98 64 26 38 25 34
is_linear=0
shrinkage=0.05


Tree=2
num_leaves=8
num_cat=0
split_feature=8 7 35 2 1 3 10
split_gain=16.4399 11.1569 7.51795 8.07998 4.78286 5.86339 2.26214
threshold=1.0000000180025095e-35 1.0000000180025095e-35 18.000000000000004 20.500000000000004 16.500000000000004 3.5000000000000004 3.5000000000000004
decision_type=2 2 2 2 2 2 2
left_child=1 2 -1 4 6 -6 -4
right_child=-2 -3 3 -5 5 -7 -8
leaf_value=0.040614382517327685 0.11144453179701171 0.087603538776244438 -0.010820062890224849 -0.076613115913051547 0.053312683097934202 -0.033583736001084823 -0.076213599948731087
leaf_weight=3.8878898620605566 2.9354677200317374 2.4647592008113852 2.8607622385025042 7.1589349359273902 4.3113438338041306 3.3128988593816757 2.8240966945886612
leaf_count=16 12 10 12 31 18 14 12
internal_value=0.000987248 -0.0112854 -0.0218145 -0.0340557 -0.0103906 0.014961 -0.0449262
internal_weight=29.7562 26.8207 24.3559 20.468 13.3091 7.62424 5.68486
internal_count=125 113 103 87 56 32 24
is_linear=0
shrinkage=0.05


Tree=3
num_leaves=8
num_cat=0
split_feature=8 24 0 11 11 39 20
split_gain=14.7169 7.53589 8.25818 5.97018 6.66187 7.11314 3.57625
threshold=1.0000000180025095e-35 1.0000000180025095e-35 69.500000000000014 9.1563033059959285 6.8057752971384105 50.500000000000007 3.0217812939205664
decision_type=2 2 2 2 2 2 2
left_child=1 -1 3 4 5 6 -3
right_child=-2 2 -4 -5 -6 -7 -8
leaf_value=-0.076058329903447408 0.10469224625287793 -0.047399322031539487 -0.063139992860470215 0.062957926800410055 -0.054185412864899696 0.075025559552778565 0.025877279598560871
leaf_weight=3.6971638649702134 2.9739042073488227 3.2818716764450127 4.1346212178468695 4.6046444177627555 4.1949748992919913 3.6419854909181595 3.1076420247554779
leaf_count=16 12 14 18 19 18 15 13
internal_value=0.000926626 -0.0108082 0 0.0140996 -0.00169433 0.0200811 -0.01114
internal_weight=29.6368 26.6629 22.9657 18.8311 14.2265 10.0315 6.38951
internal_count=125 113 97 79 60 42 27
is_linear=0
shrinkage=0.05


Tree=4
num_leaves=9
num_cat=0
split_feature=8 7 35 20 9 39 0 4
split_gain=13.2558 9.71069 6.47392 4.53218 6.96161 3.034 5.05019 1.0835
threshold=1.0000000180025095e-35 1.0000000180025095e-35 18.000000000000004 4.1425433266674858 0.71494121520261522 49.000000000000007 39.500000000000007 17.500000000000004
decision_type=2 2 2 2 2 2 2 2
left_child=1 2 -1 5 -5 7 -7 -4
right_child=-2 -3 3 4 -6 6 -8 -9
leaf_value=0.037140239540505882 0.098972382954834737 0.081335093377810905 -0.035123183729497687 0.064135421190555222 -0.052382756060722492 0.026529447942521791 -0.069881775032104229 -0.075141150093717843
leaf_weight=3.9224804043769934 2.9936704635620108 2.488848775625228 3.4963853210210818 2.6230190545320502 2.3005027025938034 3.0900043398141852 2.2269599139690399 6.3582714051008224
leaf_count=16 12 10 15 11 10 13 10 28
internal_value=0.000860254 -0.0103631 -0.0203705 -0.0319723 0.0087383 -0.0454818 -0.0134731 -0.0619407
internal_weight=29.5001 26.5065 24.0176 20.0951 4.92352 15.1716 5.31696 9.85466
internal_count=125 113 103 87 21 66 23 43
is_linear=0
shrinkage=0.05


Tree=5
num_leaves=8
num_cat=0
split_feature=7 8 31 35 32 39 29
split_gain=10.1785 11.4446 4.71494 5.8776 3.98734 1.7367 0.670886
threshold=1.0000000180025095e-35 1.0000000180025095e-35 0.58451688049596584 13.500000000000002 0.014206541064739852 10.500000000000002 5.5000000000000009
decision_type=2 2 2 2 2 2 2
left_child=1 2 -1 -4 -5 -6 -7
right_child=-2 -3 3 4 5 6 -8
leaf_value=0.041790359280932332 0.095826101885980439 0.092192953877031233 0.036029133506067991 0.0010747531331110403 -0.018154072307660713 -0.031849792177496908 -0.06953466108105158
leaf_weight=2.3536337316036322 2.2478197216987601 2.2481956630945197 2.7122322171926525 4.1639488488435772 3.2681778520345679 2.2883473038673392 8.9827383011579496
leaf_count=10 9 9 11 18 14 10 40
internal_value=-0.00366179 -0.0127827 -0.0232659 -0.0308092 -0.0409077 -0.053198 -0.0626707
internal_weight=28.2651 26.0173 23.7691 21.4154 18.7032 14.5393 11.2711
internal_count=121 112 103 93 82 64 50
is_linear=0
shrinkage=0.05


Tree=6
num_leaves=9
num_cat=0
split_feature=7 8 20 22 28 39 41 11
split_gain=9.23308 10.4243 7.45186 5.29752 4.26724 3.69103 2.06715 0.976311
threshold=1.0000000180025095e-35 1.0000000180025095e-35 6.0633524610147758 0.28715382766603176 2.5000000000000004 38.500000000000007 4.7520411653844983 4.5450895439481318
decision_type=2 2 2 2 2 2 2 2
left_child=1 2 3 4 5 -1 -5 -8
right_child=-2 -3 -4 6 -6 -7 7 -9
leaf_value=0.058842924531133184 0.091252619839243349 0.088085296813177033 0.05157112313994662 -0.0094094986618737594 -0.04640266622081067 -0.020291290876394634 -0.031358219715805484 -0.075887968581029697
leaf_weight=3.0853421688079958 2.2474309653043738 2.2402141392230979 2.8520842641592017 2.2602281570434561 3.5801402628421783 2.5464980155229568 2.2708166688680631 6.9706720262765884
leaf_count=13 9 9 12 10 16 11 10 31
internal_value=-0.00346588 -0.0122283 -0.0223075 -0.032919 -0.00397706 0.0224595 -0.0554342 -0.0659342
internal_weight=28.0534 25.806 23.5658 20.7137 9.21198 5.63184 11.5017 9.24149
internal_count=121 112 103 91 40 24 51 41
is_linear=0
shrinkage=0.05


Tree=7
num_leaves=9
num_cat=0
split_feature=7 8 20 22 35 12 9 29
split_gain=8.41247 9.52689 6.78425 4.92308 3.91275 5.23944 1.99418 0.571991
threshold=1.0000000180025095e-35 1.0000000180025095e-35 6.0633524610147758 0.28715382766603176 18.000000000000004 25.500000000000004 0.55995059081085408 52.500000000000007
decision_type=2 2 2 2 2 2 2 2
left_child=1 2 3 4 -1 -6 -5 -8
right_child=-2 -3 -4 6 5 -7 7 -9
leaf_value=0.048267458835026096 0.087261128329884211 0.084475143279563014 0.04864720582299828 -0.0081808818408364188 -0.060435964654703356 0.02740653379040784 -0.074090945426352459 -0.039228028674226943
leaf_weight=2.4627740383148318 2.2375143468379965 2.2238191515207282 2.8776503503322592 2.2285233587026587 3.9832196533679962 2.7363508194684982 6.1860483437776548 2.8976720869541168
leaf_count=10 9 9 12 10 18 12 28 13
internal_value=-0.00331458 -0.0117357 -0.0214239 -0.0316938 -0.00380725 -0.0240541 -0.05366 -0.0640625
internal_weight=27.8336 25.5961 23.3722 20.4946 9.18234 6.71957 11.3122 9.08372
internal_count=121 112 103 91 40 30 51 41
is_linear=0
shrinkage=0.05


Tree=8
num_leaves=8
num_cat=0
split_feature=7 20 22 9 4 36 5
split_gain=7.68736 5.4937 4.73509 4.50156 3.66717 3.84418 0.65378
threshold=1.0000000180025095e-35 6.0633524610147758 0.30129968306561189 0.55995059081085408 27.500000000000004 80.500000000000014 2.5000000000000004
decision_type=2 2 2 2 2 2 2
left_child=1 2 4 -4 5 -1 -5
right_child=-2 -3 3 6 -6 -7 -8
leaf_value=0.052506494515201785 0.083746735219908941 0.049160950466507959 0.01791880506254109 -0.072236748772907908 -0.03699452194399231 -0.021010926692996826 -0.039117555114508241
leaf_weight=4.4690818041563123 2.2194706201553336 3.1442075669765464 2.2894259691238394 4.9643107354640943 3.5858556628227234 2.7209379374980927 4.1768209338188171
leaf_count=19 9 13 10 23 16 12 19
internal_value=-0.0031549 -0.0112588 -0.0202199 -0.0425229 0.00315188 0.0240927 -0.0582318
internal_weight=27.5701 25.3506 22.2064 11.4306 10.7759 7.19002 9.14113
internal_count=121 112 99 52 47 31 42
is_linear=0
shrinkage=0.05


Tree=9
num_leaves=9
num_cat=0
split_feature=7 8 20 22 28 36 41 11
split_gain=7.04504 8.45022 5.65299 4.30373 3.62528 6.7404 2.0236 0.935727
threshold=1.0000000180025095e-35 1.0000000180025095e-35 6.0633524610147758 0.28715382766603176 2.5000000000000004 55.000000000000007 4.7520411653844983 4.5450895439481318
decision_type=2 2 2 2 2 2 2 2
left_child=1 2 3 4 5 -1 -5 -8
right_child=-2 -3 -4 6 -6 -7 7 -9
leaf_value=0.078027594915024368 0.080628151976726903 0.080404152668846637 0.043318149187020899 -0.0046730821764802795 -0.043579514215780824 -0.029059259141802719 -0.027338121408646429 -0.07137238651735596
leaf_weight=2.6304318457841998 2.1945345699787131 2.1920259892940512 2.9167664945125571 2.1751714497804633 3.468913733959198 3.0154364705085754 2.1984038501977903 6.5740023106336594
leaf_count=11 9 9 12 10 16 13 10 31
internal_value=-0.00301639 -0.0107969 -0.0200241 -0.0296503 -0.00358281 0.0204524 -0.0506722 -0.0613333
internal_weight=27.3657 25.1712 22.9791 20.0624 9.11478 5.64587 10.9476 8.77241
internal_count=121 112 103 91 40 24 51 41
is_linear=0
shrinkage=0.05


Tree=10
num_leaves=10
num_cat=0
split_feature=32 29 40 0 18 5 9 1 36
split_gain=6.16342 7.54851 6.07726 4.61649 5.75194 5.20359 3.71449 3.5346 0.147607
threshold=0.049791458805689255 19.500000000000004 6.8554280202545357 55.500000000000007 1.0000000180025095e-35 2.5000000000000004 0.73304172235167819 20.500000000000004 43.500000000000007
decision_type=2 2 2 2 2 2 2 2 2
left_child=1 2 7 4 -2 -6 8 -1 -3
right_child=3 6 -4 -5 5 -7 -8 -9 -10
leaf_value=-0.016221723504389704 -0.069773297253499802 0.10261451741128554 -0.061995544287366935 -0.068777716690464716 -0.021371018054428363 0.063948847488303082 0.01535332628231241 0.068368505106037397 0.063825214322963605
leaf_weight=2.2229761928319958 2.1813045144081107 2.6417414844036085 3.0661284327507019 3.369572013616561 3.3615363538265219 3.4953264147043228 3.19113989174366 2.4127157181501389 2.3718586266040802
leaf_count=10 10 11 14 16 15 15 14 10 10
internal_value=0.0063559 0.0270178 -0.00796967 -0.0197368 -0.000353869 0.0216966 0.0601632 0.0272627 0.0868487
internal_weight=28.3143 15.9066 7.70182 12.4077 9.03817 6.85686 8.20474 4.63569 5.0136
internal_count=125 69 34 56 40 30 35 20 21
is_linear=0
shrinkage=0.05


Tree=11
num_leaves=10
num_cat=0
split_feature=32 29 40 0 12 9 1 5 11
split_gain=5.62448 6.83083 5.57318 4.31976 3.43255 3.84204 3.1861 2.9089 1.64531
threshold=0.049791458805689255 19.500000000000004 6.8554280202545357 55.500000000000007 38.500000000000007 0.73304172235167819 20.500000000000004 2.5000000000000004 6.6063990561149781
decision_type=2 2 2 2 2 2 2 2 2
left_child=1 2 6 7 5 -3 -1 -2 -9
right_child=3 4 -4 -5 -6 -7 -8 8 -10
leaf_value=-0.015499221579667695 -0.030959450517769462 0.067569450174273057 -0.060011933807226817 -0.067260433683821785 0.098212519292186148 -0.017426889971651701 0.064705257430878821 0.054156364777801183 -0.0018286277399368297
leaf_weight=2.2151366174221065 4.1918745338916761 2.8220600634813291 3.0137436985969543 3.2778875529766074 3.152676910161972 2.2442521750926971 2.4271032810211182 2.3769240975379944 2.4297631978988647
leaf_count=10 19 12 14 16 13 10 10 10 11
internal_value=0.00606192 0.0257788 -0.00763639 -0.0190327 0.0572236 0.0293418 0.0258599 -0.000369165 0.0253766
internal_weight=28.1514 15.875 7.65598 12.2764 8.21899 5.06631 4.64224 8.99856 4.80669
internal_count=125 69 34 56 35 22 20 40 21
is_linear=0
shrinkage=0.05


Tree=12
num_leaves=8
num_cat=0
split_feature=24 0 20 20 29 11 35
split_gain=4.95149 6.07432 4.60155 4.15641 4.4147 2.70308 2.42752
threshold=1.0000000180025095e-35 69.500000000000014 -4.6933577593216818 -0.77634289802480994 6.5000000000000009 9.1563033059959285 115.50000000000001
decision_type=2 2 2 2 2 2 2
left_child=-1 2 -2 -4 -5 6 -6
right_child=1 -3 3 4 5 -7 -8
leaf_value=-0.049618279250789911 -0.021476038796568786 -0.04361585350223747 0.076908679958908571 -0.037605575043113716 -0.012502554100167498 0.078837583322740185 0.044805639556039806
leaf_weight=3.3976628482341793 4.147171810269362 3.7409370541572562 4.5612579733133414 2.4630872458219448 3.2283448725938779 2.598882719874382 3.8309411108493805
leaf_count=16 19 18 19 11 14 11 17
internal_value=0.00577547 0.0138081 0.0245193 0.0363112 0.0201209 0.0355896 0.0180906
internal_weight=27.9683 24.5706 20.8297 16.6825 12.1213 9.65817 7.05929
internal_count=125 109 91 72 53 42 31
is_linear=0
shrinkage=0.05


Tree=13
num_leaves=9
num_cat=0
split_feature=32 29 40 0 9 1 5 12
split_gain=4.91131 5.76801 4.85948 3.84422 3.04449 2.78689 2.48994 1.50186
threshold=0.049791458805689255 19.500000000000004 6.8554280202545357 55.500000000000007 0.71494121520261522 20.500000000000004 2.5000000000000004 28.000000000000004
decision_type=2 2 2 2 2 2 2 2
left_child=1 2 5 6 -3 -1 -2 -8
right_child=3 4 -4 -5 -6 -7 7 -9
leaf_value=-0.014870502121414898 -0.029406578932352895 0.07983708785228405 -0.056884498294290209 -0.065005844807048782 0.016095044522672065 0.060250433701154939 0.050576419016412723 -0.0027021796969190119
leaf_weight=2.1869918555021313 4.1340807229280454 4.5750861763954145 2.9241470098495483 3.123624011874198 3.6116364002227783 2.4336166977882385 2.364605650305748 2.4787633121013641
leaf_count=10 19 19 14 16 16 10 10 11
internal_value=0.0054853 0.0239775 -0.00698313 -0.0181444 0.0528537 0.0240738 -0.000752104 0.0227947
internal_weight=27.8326 15.7315 7.54476 12.1011 8.18672 4.62061 8.97745 4.84337
internal_count=125 69 34 56 35 20 40 21
is_linear=0
shrinkage=0.05


Tree=14
num_leaves=10
num_cat=0
split_feature=32 29 11 0 12 9 2 5 12
split_gain=4.48311 5.24557 4.84718 3.61813 2.99823 3.18874 2.49264 2.25987 1.35594
threshold=0.049791458805689255 19.500000000000004 8.6591574465953389 55.500000000000007 38.500000000000007 0.73304172235167819 20.500000000000004 2.5000000000000004 28.000000000000004
decision_type=2 2 2 2 2 2 2 2 2
left_child=1 2 6 7 5 -3 -1 -2 -9
right_child=3 4 -4 -5 -6 -7 -8 8 -10
leaf_value=-0.072178865959932975 -0.02821428885707742 0.059702644546471943 0.042427495536273459 -0.063768873946076207 0.088951190165465974 -0.017854873386867715 0 0.047910331843384939 -0.002573798943523678
leaf_weight=2.4563911557197597 4.0984895974397642 2.7849263548850995 2.8844992071390152 3.0293382555246344 3.1216623038053513 2.2478230595588684 2.1426202654838562 2.3766167908906937 2.4773101359605789
leaf_count=11 19 12 13 16 13 10 10 10 11
internal_value=0.00523238 0.0229401 -0.00670649 -0.0174635 0.0505049 0.0244153 -0.0388345 -0.000710898 0.0216035
internal_weight=27.6197 15.6379 7.48351 11.9818 8.15441 5.03275 4.59901 8.95242 4.85393
internal_count=125 69 34 56 35 22 21 40 21
is_linear=0
shrinkage=0.05


Tree=15
num_leaves=9
num_cat=0
split_feature=8 24 11 32 0 40 2 11
split_gain=6.86173 4.89532 5.66035 5.35519 5.1346 7.33299 3.76912 3.45629
threshold=1.0000000180025095e-35 1.0000000180025095e-35 9.1563033059959285 0.066911704933115365 26.500000000000004 6.4554098127250832 22.500000000000004 5.0757253928760004
decision_type=2 2 2 2 2 2 2 2
left_child=1 -1 4 -4 5 -3 -7 -6
right_child=-2 2 3 -5 7 6 -8 -9
leaf_value=-0.06904578185976909 0.078813524701812424 -0.04157280790622455 0.076457947935597459 -0.021269552710587274 0 0.077412186858547671 -0.00488689704776607 -0.064528108799087436
leaf_weight=2.8567729592323365 2.3646163642406455 3.7766821086406761 3.7853891253471366 2.0312805473804474 3.3648064881563169 3.5968458354473114 2.037522628903389 5.7119262963533401
leaf_count=14 10 17 16 10 15 15 10 28
internal_value=-0.000893418 -0.00827965 -0.000678592 0.0417021 -0.0144341 0.0109946 0.0472127 -0.0411768
internal_weight=29.5258 27.1612 24.3045 5.81667 18.4878 9.41105 5.63437 9.07673
internal_count=135 125 111 26 85 42 25 43
is_linear=0
shrinkage=0.05


Tree=16
num_leaves=10
num_cat=0
split_feature=8 24 0 40 36 29 31 39 32
split_gain=6.32666 4.56705 4.93552 5.27507 5.10056 2.78451 2.74685 5.15511 2.32665
threshold=1.0000000180025095e-35 1.0000000180025095e-35 28.000000000000004 6.507685840247631 38.000000000000007 26.500000000000004 0.80639164084752146 21.000000000000004 0.035237171008900559
decision_type=2 2 2 2 2 2 2 2 2
left_child=1 -1 3 4 -3 -5 8 -8 -4
right_child=-2 2 6 5 -6 -7 7 -9 -10
leaf_value=-0.067537608745930108 0.07629555619299308 0.037418977003113273 -0.0054471862531952813 0.0076874238469173328 -0.058169592871307033 0.075499717104806449 -0.050444897514972942 0.052364000957384506 -0.06570744320607412
leaf_weight=2.7787531018257203 2.3248247355222693 2.3980724662542361 2.8334734886884672 2.6535115838050842 2.9907803535461426 4.1792026609182358 2.1139320433139801 2.5898851752281189 4.3503215312957764
leaf_count=14 10 10 13 12 14 18 10 11 23
internal_value=-0.000877288 -0.00799317 -0.00067309 0.0213392 -0.0148144 0.0503765 -0.02371 0.00503174 -0.0430268
internal_weight=29.2128 26.8879 24.1092 12.2216 5.38885 6.83271 11.8876 4.70382 7.1838
internal_count=135 125 111 54 24 30 57 21 36
is_linear=0
shrinkage=0.05


Tree=17
num_leaves=10
num_cat=0
split_feature=12 43 2 22 41 12 29 2 4
split_gain=3.40731 4.00189 3.75213 2.84021 4.57472 2.82498 2.78419 2.42682 2.58537
threshold=20.500000000000004 1.0000000180025095e-35 3.5000000000000004 0.38840540999862688 5.8533136848028633 10.500000000000002 36.500000000000007 18.500000000000004 24.500000000000004
decision_type=2 2 2 2 2 2 2 2 2
left_child=2 3 -1 4 -2 7 -5 -4 -9
right_child=1 -3 5 6 -6 -7 -8 8 -10
leaf_value=0.036363671558907983 0.029324343210169697 0.064417863966381425 -0.047881572011952825 -0.0093902591288502063 -0.052657425723728925 -0.070673470045110862 0.066911883336410433 0.046553265852232656 -0.02140434179140193
leaf_weight=2.4487795978784588 2.7460094243288022 3.2132749557495108 3.3107722103595716 2.0032624900341034 3.9941467046737671 3.0947550684213629 2.4761469066143036 2.2087048590183258 3.3848689645528793
leaf_count=11 12 14 16 10 19 15 11 10 17
internal_value=-0.000848815 0.0160966 -0.0181145 0.00136885 -0.0185858 -0.0298544 0.0322366 -0.0144849 0.00489788
internal_weight=28.8807 14.4328 14.4479 11.2196 6.74016 11.9991 4.47941 8.90435 5.59357
internal_count=135 66 69 52 31 58 21 43 27
is_linear=0
shrinkage=0.05


Tree=18
num_leaves=10
num_cat=0
split_feature=8 24 11 32 0 40 2 10 26
split_gain=5.68515 4.20078 4.99185 4.54283 4.30892 5.85983 3.87561 3.30106 0.699133
threshold=1.0000000180025095e-35 1.0000000180025095e-35 9.1563033059959285 0.066911704933115365 26.500000000000004 6.5420522494540227 22.500000000000004 5.5000000000000009 2.5000000000000004
decision_type=2 2 2 2 2 2 2 2 2
left_child=1 -1 4 -4 5 -3 -7 8 -6
right_child=-2 2 3 -5 7 6 -8 -9 -10
leaf_value=-0.065648166970170438 0.073356988895192071 -0.033674809023822409 0.071369457199716421 -0.019543273347232781 -0.027240331416308841 0.079730398011182924 -0.0061605059109551439 0.0092519850344466009 -0.069914927099603105
leaf_weight=2.6900682598352494 2.2604046165943137 4.1171368211507851 3.7580320984125128 1.9652364701032636 2.0576387941837293 3.0998632460832596 2.032766118645668 2.3927130699157715 4.2977136522531509
leaf_count=14 10 19 16 10 10 13 10 12 21
internal_value=-0.000807339 -0.00759607 -0.000554875 0.039494 -0.0137145 0.00962336 0.0452903 -0.0387857 -0.057509
internal_weight=28.6716 26.4112 23.7211 5.72327 17.9978 9.24977 5.13263 8.74807 6.35535
internal_count=135 125 111 26 85 42 23 43 31
is_linear=0
shrinkage=0.05


Tree=19
num_leaves=10
num_cat=0
split_feature=8 24 11 32 0 40 10 36 26
split_gain=5.26529 3.92978 4.54524 4.13901 3.96085 5.36576 3.09639 3.01379 0.675669
threshold=1.0000000180025095e-35 1.0000000180025095e-35 9.1563033059959285 0.066911704933115365 26.500000000000004 6.4554098127250832 5.5000000000000009 91.500000000000014 2.5000000000000004
decision_type=2 2 2 2 2 2 2 2 2
left_child=1 -1 4 -4 5 -3 8 -7 -6
right_child=-2 2 3 -5 6 7 -8 -9 -10
leaf_value=-0.064370636268985967 0.071343507660482766 -0.037080930792824901 0.068229821402497143 -0.018753337758181131 -0.026162912103197405 0.06799429746573675 0.0087914908936642579 -0.0050973426004717534 -0.068399222557039729
leaf_weight=2.6102948337793412 2.2120361477136603 3.6051880121231132 3.7394648492336264 1.9502188563346861 2.0398357957601529 3.4856726378202438 2.3972582668066025 2.1049911677837372 4.1785428673028946
leaf_count=14 10 17 16 10 10 15 12 10 21
internal_value=-0.000791666 -0.00734223 -0.000550281 0.0377426 -0.0132041 0.00916257 -0.0374819 0.0399893 -0.055969
internal_weight=28.3235 26.1115 23.5012 5.68968 17.8115 9.19585 8.61564 5.59066 6.21838
internal_count=135 125 111 26 85 42 43 25 31
is_linear=0
shrinkage=0.05


Tree=20
num_leaves=9
num_cat=0
split_feature=23 12 32 29 11 9 6 36
split_gain=3.19142 3.97252 2.83559 2.85881 2.52492 2.5014 2.39758 0.43247
threshold=1.0000000180025095e-35 28.000000000000004 0.052717717993765956 29.500000000000004 9.1563033059959285 0.71494121520261522 1.5000000000000002 48.500000000000007
decision_type=2 2 2 2 2 2 2 2
left_child=-1 4 3 -3 5 6 -2 -7
right_child=1 2 -4 -5 -6 7 -8 -9
leaf_value=-0.048690663972952353 -0.032091730998585193 0.010773321276977778 -0.0049367810743983203 0.08159520031653561 0.026644493279429693 -0.027855732109985206 0.032096335854984677 -0.067554466393321855
leaf_weight=3.1316579133272198 3.0631799697875994 2.9121672213077527 3.6827664822340012 3.1715180724859238 2.8599682450294486 1.995338127017021 2.5752826780080795 2.5888556689023972
leaf_count=15 15 14 17 14 14 10 12 13
internal_value=-0.00204844 0.00431071 0.0284516 0.0492249 -0.0134108 -0.0252509 -0.00185505 -0.052306
internal_weight=25.9807 22.8491 9.76645 6.08369 13.0826 10.2227 5.63846 4.58419
internal_count=124 109 45 28 64 50 27 23
is_linear=0
shrinkage=0.05


Tree=21
num_leaves=9
num_cat=0
split_feature=13 28 27 32 31 36 28 9
split_gain=3.03318 3.98219 4.11242 2.69268 2.48661 1.27936 1.09284 0.585543
threshold=3.5000000000000004 3.5000000000000004 1.0000000180025095e-35 0.033629528216844611 0.87283714296065973 33.500000000000007 2.5000000000000004 0.72306246203562019
decision_type=2 2 2 2 2 2 2 2
left_child=1 2 4 -2 5 -1 -5 -7
right_child=3 -3 -4 6 -6 7 -8 -9
leaf_value=0.01706896630600022 0.0052774678478194051 -0.03420457570741952 -0.02690889693992057 -0.068622893328634513 0 0.086763618214685478 -0.017660038099385749 0.041716432803615505
leaf_weight=2.0250140428543144 3.8372609764337522 3.7036106288433066 2.9286318719387046 2.977007120847702 3.1038134396076202 2.7760388553142548 2.2197829037904739 2.2138830274343491
leaf_count=10 18 19 14 15 15 12 11 10
internal_value=-0.00197082 0.0104046 0.0236114 -0.0253274 0.0388428 0.0551423 -0.0485427 0.0689721
internal_weight=25.785 16.751 13.0474 9.03405 10.1187 7.01494 5.19679 4.98992
internal_count=124 80 61 44 47 32 26 22
is_linear=0
shrinkage=0.05


Tree=22
num_leaves=10
num_cat=0
split_feature=33 18 13 41 32 29 9 29 1
split_gain=2.92255 4.52664 4.43621 3.46822 2.1771 1.87338 1.25216 1.14924 0.0163386
threshold=1.0000000180025095e-35 1.0000000180025095e-35 3.5000000000000004 7.2989246590429717 0.026496091543954502 39.500000000000007 0.59915983859647814 22.500000000000004 21.500000000000004
decision_type=2 2 2 2 2 2 2 2 2
left_child=1 4 3 6 -1 -4 -3 -6 -8
right_child=-2 2 5 -5 7 -7 8 -9 -10
leaf_value=0.0052014072085859809 -0.049667933233757788 0.025733031635525573 -0.049312272680214264 -0.009460754945094154 -0.014204520590786569 0.0094113014462913168 0.053704721397425409 -0.068924912830793272 0.085651683853654334
leaf_weight=2.9192702770233199 2.7590180188417426 2.8994584381580335 2.3790714293718347 2.5769507735967636 1.9479461163282392 2.7033224254846573 2.355331763625145 2.7421988546848297 2.3550065755844116
leaf_count=14 14 14 12 12 10 13 11 14 10
internal_value=-0.00187095 0.00386656 0.0197234 0.0387875 -0.0271465 -0.0175335 0.0556855 -0.0480128 0.0721651
internal_weight=25.6376 22.8786 15.2691 10.1867 7.60942 5.08239 7.6098 4.69014 4.71034
internal_count=124 110 72 47 38 25 35 24 21
is_linear=0
shrinkage=0.05


Tree=23
num_leaves=10
num_cat=0
split_feature=33 18 13 41 32 32 9 28 1
split_gain=2.70344 4.13912 4.03367 3.16813 2.03858 1.82565 1.15512 0.267314 0.0269628
threshold=1.0000000180025095e-35 1.0000000180025095e-35 3.5000000000000004 7.2989246590429717 0.031378873687902507 0.033629528216844611 0.59915983859647814 2.5000000000000004 21.500000000000004
decision_type=2 2 2 2 2 2 2 2 2
left_child=1 4 3 6 -1 -4 -3 -6 -8
right_child=-2 2 5 -5 7 -7 8 -9 -10
leaf_value=8.406107387412678e-05 -0.048277425513354316 0.024450425699322278 0.011149030698438867 -0.009022864782428381 -0.066535333676034814 -0.046962811631359853 0.051098000495131815 -0.029846297093572883 0.082565130603297551
leaf_weight=3.5655005574226424 2.7009290009737006 2.9040998816490156 2.5626741051673898 2.5718980580568314 1.9539712071418764 2.4768406599760056 2.3567669093608856 2.0104281306266785 2.3253684788942337
leaf_count=17 14 14 12 12 10 13 11 11 10
internal_value=-0.00179263 0.00369986 0.0188788 0.0370565 -0.0261264 -0.0167972 0.053243 -0.0503519 0.0691713
internal_weight=25.4285 22.7275 15.1976 10.1581 7.5299 5.03951 7.58624 3.9644 4.68214
internal_count=124 110 72 47 38 25 35 21 21
is_linear=0
shrinkage=0.05


Tree=24
num_leaves=11
num_cat=0
split_feature=20 32 11 11 19 9 3 13 6 35
split_gain=2.60577 3.29645 2.15009 2.86312 2.2892 1.53087 1.76211 1.48056 1.36118 0.594638
threshold=-4.6933577593216818 0.084186080570252966 9.1563033059959285 6.7221140718843344 63.299247173811928 0.72837642628613264 2.5000000000000004 3.5000000000000004 1.0000000180025095e-35 126.00000000000001
decision_type=2 2 2 2 2 2 2 2 2 2
left_child=8 2 3 5 -5 6 -2 -3 -1 -4
right_child=1 7 9 4 -6 -7 -8 -9 -10 -11
leaf_value=-0.062273501435340474 0.07505176882543696 -0.004394442705017927 0.066422301363603484 -0.064500155921338814 0.0087396344825896345 -0.0078590987466383971 0.0098427600406812716 -0.060792163962672924 -0.0078856433063237523 0.02352497063058363
leaf_weight=2.231681868433955 2.068733751773836 3.1986780166625968 2.2310912311077109 1.9773427993059161 1.9405149444937704 2.0686245560646057 2.4459294378757477 1.9670001268386839 2.8260966241359711 2.2556986808776855
leaf_count=12 9 15 10 10 10 10 12 11 15 10
internal_value=-0.00172049 0.00615832 0.0182186 0.00515296 -0.0276654 0.0255537 0.0417856 -0.0275659 -0.0335951 0.0469292
internal_weight=25.2114 20.1536 14.9879 10.5011 3.91786 6.58329 4.51466 5.16568 5.05778 4.48679
internal_count=124 97 71 51 20 31 21 26 27 20
is_linear=0
shrinkage=0.05


Tree=25
num_leaves=10
num_cat=0
split_feature=23 12 29 38 1 10 20 0 11
split_gain=5.05515 3.32639 3.63482 2.92227 2.90054 2.22917 1.81485 1.70058 1.46792
threshold=1.0000000180025095e-35 23.500000000000004 29.500000000000004 1.5000000000000002 13.500000000000002 3.5000000000000004 -4.058363067779986 30.500000000000004 5.7668598784033129
decision_type=2 2 2 2 2 2 2 2 2
left_child=-1 3 5 -2 -5 -3 -6 -4 -8
right_child=1 2 7 4 6 -7 8 -9 -10
leaf_value=-0.058713037074409481 -0.062539036886534657 0.027363251274364217 0.082035159987277256 -0.041879943485321425 -0.022143650817697841 -0.037047587634907501 0 0.026455395994854095 0.052456547108419238
leaf_weight=2.9574899673461941 1.9843840897083307 2.7852949798107129 2.9341992735862732 2.5819215774536115 1.8232277482748047 2.3963959887623787 2.0454886853694898 3.4577049762010574 3.482661247253418
leaf_count=15 11 14 13 14 10 12 10 17 16
internal_value=0.0015575 0.00957405 0.0286542 -0.00862338 0.00216503 -0.00161585 0.0186598 0.0536101 0.0331598
internal_weight=26.4488 23.4913 11.5736 11.9177 9.9333 5.18169 7.35138 6.3919 5.52815
internal_count=132 117 56 61 50 26 36 30 26
is_linear=0
shrinkage=0.05


Tree=26
num_leaves=9
num_cat=0
split_feature=23 29 12 25 1 27 4 2
split_gain=4.65796 3.15799 3.75024 3.53402 2.34168 1.8773 1.79189 1.16221
threshold=1.0000000180025095e-35 8.5000000000000018 23.500000000000004 1.0000000180025095e-35 13.500000000000002 1.0000000180025095e-35 24.500000000000004 13.500000000000002
decision_type=2 2 2 2 2 2 2 2
left_child=-1 5 4 -4 -3 -2 -6 -5
right_child=1 2 3 7 6 -7 -8 -9
leaf_value=-0.056977699027856855 9.1302280034595208e-06 -0.041101121146282421 -0.0027511741830574506 0.031696927118018532 0.036179776852976069 -0.060374053634088577 -0.013760490418814881 0.082325553516316791
leaf_weight=2.899710729718211 2.6949669569730785 2.7500767931342143 2.8163955211639404 2.5126340836286527 3.6938008964061737 2.1091359779238701 3.1526995152235031 3.5746551901102066
leaf_count=15 13 16 15 12 17 12 16 16
internal_value=0.00145986 0.00915713 0.0186914 0.0419058 -0.00254123 -0.0261718 0.0125963 0.0630859
internal_weight=26.2041 23.3044 18.5003 8.90368 9.59658 4.8041 6.8465 6.08729
internal_count=132 117 92 43 49 25 33 28
is_linear=0
shrinkage=0.05


Tree=27
num_leaves=9
num_cat=0
split_feature=8 23 24 27 32 0 19 29
split_gain=4.33145 4.80886 4.01584 3.98886 3.24313 4.51433 4.17333 2.2236
threshold=1.0000000180025095e-35 1.0000000180025095e-35 1.0000000180025095e-35 1.0000000180025095e-35 0.047075895460203909 28.000000000000004 64.093584751391901 13.500000000000002
decision_type=2 2 2 2 2 2 2 2
left_child=1 -1 -3 4 6 -6 -4 -5
right_child=-2 2 3 7 5 -7 -8 -9
leaf_value=-0.067535893914317691 0.068410692456875158 -0.059968155172292884 0.0026593417614015533 -0.061388962133752528 0.038246317278277639 -0.041691645408994248 0.08183983598095157 0.0019084490961459263
leaf_weight=2.6024840176105561 2.1147578805685034 2.1368820518255331 3.0623508840799278 2.3086305260658255 3.6268860101699829 3.2564825564622879 3.9558881223201752 2.9177185073494911
leaf_count=14 10 13 15 13 16 18 18 15
internal_value=0.00136868 -0.00462359 0.00312193 0.0107053 0.0248504 0 0.0485152 -0.0257407
internal_weight=25.9821 23.8673 21.2648 19.128 13.9016 6.88337 7.01824 5.22635
internal_count=132 122 108 95 67 34 33 28
is_linear=0
shrinkage=0.05


Tree=28
num_leaves=9
num_cat=0
split_feature=8 23 12 1 0 13 41 10
split_gain=4.02961 4.48601 3.1546 3.34932 2.95734 3.62761 2.45006 2.36082
threshold=1.0000000180025095e-35 1.0000000180025095e-35 25.500000000000004 13.500000000000002 19.500000000000004 3.5000000000000004 7.2989246590429717 4.5000000000000009
decision_type=2 2 2 2 2 2 2 2
left_child=1 -1 3 -3 -4 -6 7 -5
right_child=-2 2 4 6 5 -7 -8 -9
leaf_value=-0.066151464896143652 0.06680040487935858 -0.054606792875322156 0.06459554784319417 0.047825080943272397 0.03554388048608819 -0.040314816116318535 -0.045872006338237861 -0.01132245399195931
leaf_weight=2.5280853211879792 2.0612194389104834 3.4605453833937672 3.0266550183296186 3.234974801540373 3.7683521807193756 2.5385502353310585 1.8271457701921461 3.1426997482776642
leaf_count=14 10 21 14 15 18 14 10 16
internal_value=0.00130637 -0.00447843 0.00298782 -0.0140286 0.0247088 0.00407741 0.00293541 0.0181825
internal_weight=25.5882 23.527 20.9989 11.6654 9.33356 6.3069 8.20482 6.37767
internal_count=132 122 108 62 46 32 41 31
is_linear=0
shrinkage=0.05


Tree=29
num_leaves=10
num_cat=0
split_feature=29 12 1 18 25 32 32 4 29
split_gain=3.38491 2.76979 3.10807 2.23875 2.58233 2.01884 2.02637 1.51195 1.22917
threshold=3.5000000000000004 23.500000000000004 8.5000000000000018 1.0000000180025095e-35 1.0000000180025095e-35 0.11212889648852771 0.022380292951528605 26.000000000000004 36.500000000000007
decision_type=2 2 2 2 2 2 2 2 2
left_child=-1 2 -2 -3 -5 6 -4 -8 -6
right_child=1 3 5 4 8 -7 7 -9 -10
leaf_value=-0.062109395937687419 -0.060877390714330876 -0.010259509198806256 -0.023491489065276476 -0.010072201045432499 0.025859090029501892 -0.045129435993280148 0.050637769703063273 -0.0011529016685437169 0.074015903130489544
leaf_weight=1.8344091624021555 2.3120655864477184 3.1961064934730521 2.3360799849033338 1.9807799905538548 3.0730663016438475 1.6858973428606985 3.39317836612463 2.0472411662340164 3.4030366390943527
leaf_count=10 14 17 13 11 15 10 16 10 16
internal_value=0.00122865 0.00664355 -0.010127 0.0239563 0.0374406 0.00225754 0.0136081 0.0305773 0.0526654
internal_weight=25.2619 23.4275 11.7745 11.653 8.45688 9.4624 7.7765 5.44042 6.4761
internal_count=132 122 63 59 42 49 39 26 31
is_linear=0
shrinkage=0.05


Tree=30
num_leaves=9
num_cat=0
split_feature=7 35 20 18 39 22 12 4
split_gain=2.97591 2.73504 2.70315 2.82489 2.01052 1.77315 2.04337 1.61857
threshold=1.0000000180025095e-35 18.000000000000004 -4.058363067779986 1.0000000180025095e-35 58.000000000000007 0.36168115194923872 25.500000000000004 36.500000000000007
decision_type=2 2 2 2 2 2 2 2
left_child=1 -1 -3 4 -4 6 -5 -7
right_child=-2 2 3 5 -6 7 -8 -9
leaf_value=0.026167852138106396 0.051128138220613788 -0.053432228608183432 -0.065375623438225325 0 0 -0.049230138847339296 0.057802394438094852 0.012123774680559031
leaf_weight=3.9804652780294481 2.0229738205671302 4.2566194236278614 2.8296554088592591 3.4468146264552928 1.9033695608377454 1.9908868670463564 2.5039469450712204 1.9492386430501936
leaf_count=18 10 27 15 19 10 11 11 10
internal_value=-0.00514164 -0.0105397 -0.0186391 -0.00787803 -0.03938 0.00693921 0.0243637 -0.0180911
internal_weight=24.884 22.861 18.8805 14.6239 4.73302 9.89089 5.95076 3.94013
internal_count=131 121 103 76 25 51 30 21
is_linear=0
shrinkage=0.05


Tree=31
num_leaves=9
num_cat=0
split_feature=7 35 20 18 39 11 12 12
split_gain=2.74108 2.50186 2.54745 2.60621 1.91262 1.68708 2.11621 1.52893
threshold=1.0000000180025095e-35 18.000000000000004 -4.058363067779986 1.0000000180025095e-35 58.000000000000007 8.6591574465953389 25.500000000000004 10.500000000000002
decision_type=2 2 2 2 2 2 2 2
left_child=1 -1 -3 4 -4 6 7 -5
right_child=-2 2 3 5 -6 -7 -8 -9
leaf_value=0.024877989014927979 0.049477641161501808 -0.052349815402376411 -0.064126523837306604 0 0 0.034236402718409824 0.030439528104828251 -0.060752802247960827
leaf_weight=3.9826244562864366 1.9901135861873616 4.1326332688331684 2.7446420192718533 2.2814100235700501 1.9033695608377454 3.50322325527668 2.129699319601059 1.9256418496370313
leaf_count=18 10 27 15 13 10 17 10 11
internal_value=-0.00494182 -0.0101503 -0.0180022 -0.00757019 -0.0381661 0.00661767 -0.00816902 -0.0291273
internal_weight=24.5934 22.6032 18.6206 14.488 4.64801 9.83997 6.33675 4.20705
internal_count=131 121 103 76 25 51 34 24
is_linear=0
shrinkage=0.05


Tree=32
num_leaves=8
num_cat=0
split_feature=8 7 35 20 0 21 12
split_gain=4.03578 3.19603 3.08517 2.26264 1.65645 1.94384 1.90584
threshold=1.0000000180025095e-35 1.0000000180025095e-35 18.000000000000004 4.1425433266674858 19.500000000000004 1.0000000180025095e-35 25.500000000000004
decision_type=2 2 2 2 2 2 2
left_child=1 2 -1 4 6 -6 -4
right_child=-2 -3 3 -5 5 -7 -8
leaf_value=0.022234962809371803 0.062936912969975431 0.0478963308204476 -0.037064697908883101 0.006882920751322897 -1.7656254014275471e-06 -0.062291057190990429 0.025981090483009308
leaf_weight=3.8345829546451666 1.901717260479926 1.9571744352579106 2.8129036277532604 3.6653746068477622 1.744304433465002 6.5146513655781746 1.8653710484504697
leaf_count=17 10 10 17 18 9 41 9
internal_value=-0.0047559 -0.0109808 -0.0170685 -0.0265242 -0.0363528 -0.049891 -0.0108624
internal_weight=24.2961 22.3944 20.4372 16.6026 12.9372 8.25896 4.67827
internal_count=131 121 111 94 76 50 26
is_linear=0
shrinkage=0.05


Tree=33
num_leaves=8
num_cat=0
split_feature=8 7 35 20 0 21 12
split_gain=3.75596 2.94399 2.83736 2.11969 1.58271 1.87338 1.75134
threshold=1.0000000180025095e-35 1.0000000180025095e-35 18.000000000000004 4.1425433266674858 19.500000000000004 1.0000000180025095e-35 25.500000000000004
decision_type=2 2 2 2 2 2 2
left_child=1 2 -1 4 6 -6 -4
right_child=-2 -3 3 -5 5 -7 -8
leaf_value=0.021137997807179731 0.061705960597436119 0.046377840936381351 -0.035874188046958681 0.0065420172939583375 -1.6840225580035501e-06 -0.061427540709394823 0.024692823440687451
leaf_weight=3.8370233774185278 1.8460801392793644 1.9243115633726109 2.7654823809862163 3.6686821430921546 1.7443036958575229 6.2831955179572105 1.8696588873863218
leaf_count=17 10 10 17 18 9 41 9
internal_value=-0.00455199 -0.010567 -0.0164489 -0.0256591 -0.0353585 -0.0488597 -0.010382
internal_weight=23.9387 22.0927 20.1683 16.3313 12.6626 8.0275 4.63514
internal_count=131 121 111 94 76 50 26
is_linear=0
shrinkage=0.05


Tree=34
num_leaves=10
num_cat=0
split_feature=1 4 0 40 36 39 12 4 35
split_gain=2.28716 3.27279 2.08958 2.65348 1.95938 1.8236 2.81039 0.72099 0.185908
threshold=13.500000000000002 6.5000000000000009 22.500000000000004 6.4554098127250832 153.50000000000003 30.500000000000004 25.500000000000004 13.500000000000002 104.00000000000001
decision_type=2 2 2 2 2 2 2 2 2
left_child=5 -2 3 -3 8 6 7 -1 -4
right_child=1 2 4 -5 -6 -7 -8 -9 -10
leaf_value=-0.058797855321541609 0.04969406446313443 -0.020821754780702396 -0.062455853982213455 0.052326687892384073 0.0049976119245718513 -0.055462375682015189 0.029842069800083748 -0.009082307705539831 -0.02631740359298982
leaf_weight=1.7870763838291188 3.4472767263650885 2.0817808210849744 1.9379454553127291 2.6191501468420029 2.8216678723692894 2.9969469234347343 2.6755811423063278 1.712815426290035 1.5056556314229963
leaf_count=11 17 11 11 13 16 18 13 11 10
internal_value=-0.00435526 0.00779946 -0.00524853 0.0191329 -0.024341 -0.0238725 -0.00710568 -0.0367846 -0.0492545
internal_weight=23.5859 14.4135 10.9662 4.70093 6.26527 9.17242 6.17547 3.49989 3.4436
internal_count=131 78 61 24 37 53 35 22 21
is_linear=0
shrinkage=0.05


Tree=35
num_leaves=9
num_cat=0
split_feature=29 20 16 13 27 20 3 9
split_gain=2.1532 2.19516 2.06286 2.43574 2.30088 2.11946 1.72524 1.45258
threshold=3.5000000000000004 -4.6933577593216818 1.0000000180025095e-35 1.5000000000000002 1.0000000180025095e-35 2.5119827539133777 4.5000000000000009 0.61349396373102427
decision_type=2 2 2 2 2 2 2 2
left_child=-1 7 3 -3 5 6 -5 -2
right_child=1 2 -4 4 -6 -7 -8 -9
leaf_value=-0.04716808960463105 0 -0.02144406113338089 -0.034994251710316983 0.079781900468058276 -0.0095794858817233961 0.0065123527643616971 0.017623966516536461 -0.056719886020590859
leaf_weight=2.2294574230909374 2.0063536390662255 2.827605560421941 1.8984747529029853 3.6857510879635793 2.7242754846811286 3.1957637146115303 2.0127472206950188 2.0862028151750565
leaf_count=13 11 15 11 17 15 17 11 15
internal_value=-0.00146441 0.00348326 0.0119165 0.0186233 0.028901 0.0412188 0.0593722 -0.0284853
internal_weight=22.6666 20.4372 16.3446 14.4461 11.6185 8.89426 5.6985 4.09256
internal_count=125 112 86 75 60 45 28 26
is_linear=0
shrinkage=0.05


Tree=36
num_leaves=9
num_cat=0
split_feature=18 33 39 13 13 35 20 19
split_gain=1.99647 4.33669 3.58935 2.48934 2.26932 1.99665 1.51606 0.567929
threshold=1.0000000180025095e-35 1.0000000180025095e-35 62.500000000000007 3.5000000000000004 1.5000000000000002 139.50000000000003 -0.58979032139040144 63.780905079895014
decision_type=2 2 2 2 2 2 2 2
left_child=2 3 -1 4 -2 7 -6 -5
right_child=1 -3 -4 5 6 -7 -8 -9
leaf_value=-0.054008593743834578 -0.00075063658790712224 -0.059670936618991727 0.023935585038720203 -0.058012907781031568 0.017287609158927943 0.023576822511899992 0.072919424098188065 -0.010362597883944743
leaf_weight=3.9481291249394443 2.8762790858745557 1.9753674492239959 2.1480082720518112 1.4160581752657901 2.4073441252112415 2.5300966054201126 3.4651136696338627 1.6951278448104856
leaf_count=24 15 12 11 9 13 13 17 11
internal_value=-0.00142417 0.00745169 -0.0257945 0.0173591 0.034025 -0.00775851 0.0516223 -0.0347389
internal_weight=22.4615 16.3654 6.09614 14.39 8.74874 5.64128 5.87246 3.11119
internal_count=125 90 35 78 45 33 30 20
is_linear=0
shrinkage=0.05


Tree=37
num_leaves=9
num_cat=0
split_feature=29 18 33 20 11 11 5 19
split_gain=1.94064 1.98127 4.50348 2.80226 2.6311 2.1517 1.75618 2.33403
threshold=3.5000000000000004 1.0000000180025095e-35 1.0000000180025095e-35 -3.3749111142728245 8.3495193752952854 6.4171610126054306 2.5000000000000004 69.35222928150219
decision_type=2 2 2 2 2 2 2 2
left_child=-1 5 3 -3 6 -2 7 -5
right_child=1 2 -4 4 -6 -7 -8 -9
leaf_value=-0.045462627951967802 0.0027863290352908858 -0.019045852928101417 -0.058602509118289507 -0.047237221483110291 0.069258736123031017 -0.058763012821437248 0.046563383978397044 0.029634422550264918
leaf_weight=2.1607770919799831 3.2956117391586348 2.7501393631100681 1.7729268446564681 1.7634020000696096 3.75754015147686 2.2101785987615585 2.5222949758172035 1.9555044323205946
leaf_count=13 17 18 11 10 18 15 13 10
internal_value=-0.00138867 0.0033203 0.0132078 0.0239616 0.0363573 -0.0216369 0.0149805 -0.00578916
internal_weight=22.1884 20.0276 14.5218 12.7489 9.99874 5.50579 6.2412 3.71891
internal_count=125 112 80 69 51 32 33 20
is_linear=0
shrinkage=0.05


Tree=38
num_leaves=10
num_cat=0
split_feature=29 18 39 20 11 35 13 12 41
split_gain=1.79499 1.81434 3.58306 2.99093 2.26713 2.58807 1.81907 0.847935 0.0176326
threshold=3.5000000000000004 1.0000000180025095e-35 62.500000000000007 -4.6933577593216818 8.3495193752952854 36.500000000000007 3.5000000000000004 45.000000000000007 6.605833284076712
decision_type=2 2 2 2 2 2 2 2 2
left_child=-1 2 8 -3 5 -5 -7 -6 -2
right_child=1 3 -4 4 7 6 -8 -9 -10
leaf_value=-0.044207763612419571 -0.060497194090633505 -0.033099241521273651 0.030577171263853072 -0.03673588945081787 0.073708769005633598 0.051848014856664876 -0.0059928495749692438 0.022714621671496418 -0.030353293119429969
leaf_weight=2.1150206327438381 2.1273837164044429 2.7021332159638449 1.9634779840707777 2.2434388324618251 2.326573982834816 2.8943462073802948 2.2008888646960258 1.9615955427289007 1.3401716277003286
leaf_count=13 13 18 10 12 11 15 13 11 9
internal_value=-0.00136413 0.0031694 -0.0208585 0.0127045 0.0239674 0.0060997 0.0262668 0.0525705 -0.0514258
internal_weight=21.875 19.76 5.43103 14.329 11.6268 7.33867 5.09524 4.28817 3.46756
internal_count=125 112 32 80 62 40 28 22 22
is_linear=0
shrinkage=0.05


Tree=39
num_leaves=9
num_cat=0
split_feature=23 12 6 39 35 1 19 9
split_gain=1.69653 1.86948 1.88476 1.88551 1.7823 1.90153 1.00826 0.899232
threshold=1.0000000180025095e-35 23.500000000000004 1.0000000180025095e-35 21.000000000000004 139.50000000000003 32.500000000000007 58.063458249093962 0.71494121520261522
decision_type=2 2 2 2 2 2 2 2
left_child=-1 2 -2 -4 5 -3 -6 -5
right_child=1 4 3 7 6 -7 -8 -9
leaf_value=-0.038829682461320236 -0.048974991057189304 -0.02834788745009147 -0.033846035386252298 0.03809746636784539 0.010484700180186095 0.034958667393191652 0.060071988202165444 -0.0039648516521722825
leaf_weight=2.5701208189129856 2.4123893082141894 2.8153822124004346 2.3738301396369934 2.725513257086277 2.1130154803395271 1.8844942599534986 2.7619381099939346 1.9245099425315855
leaf_count=15 17 17 15 14 12 9 14 12
internal_value=-0.00133664 0.00364709 -0.011761 0.000826613 0.0193136 -0.00172289 0.0402265 0.0199195
internal_weight=21.5812 19.0111 9.43624 7.02385 9.57483 4.69988 4.87495 4.65002
internal_count=125 110 58 41 52 26 26 26
is_linear=0
shrinkage=0.05


Tree=40
num_leaves=9
num_cat=0
split_feature=0 29 20 18 9 4 39 20
split_gain=2.50522 2.68386 2.15911 2.5428 1.64865 1.13384 0.842362 0.563673
threshold=69.500000000000014 6.5000000000000009 -4.058363067779986 1.0000000180025095e-35 0.61349396373102427 13.500000000000002 50.500000000000007 1.4138705363490418
decision_type=2 2 2 2 2 2 2 2
left_child=1 -1 4 6 -3 -5 -4 -7
right_child=-2 2 3 5 -6 7 -8 -9
leaf_value=-0.03237181899322826 -0.043946833472007119 0.014532665569752058 -0.027922634226693988 0.019117686630051645 -0.04813794425970621 0.082549105831098313 0.019017745485588468 0.038116300150366877
leaf_weight=2.9980267360806527 2.3653457015752783 2.1858250349760087 1.8664036020636605 3.2017045766115091 1.7438857927918432 2.1814904510974884 1.6793912947177885 2.4449711292982101
leaf_count=18 18 13 12 18 13 10 9 13
internal_value=0.0030442 0.00959494 0.0182977 0.0294052 -0.0125423 0.0452136 -0.00440704 0.0614286
internal_weight=20.667 18.3017 15.3037 11.374 3.92971 7.82817 3.54579 4.62646
internal_count=124 106 88 62 26 41 21 23
is_linear=0
shrinkage=0.05


Tree=41
num_leaves=8
num_cat=0
split_feature=0 29 0 18 40 9 1
split_gain=2.32207 2.46027 1.98445 1.85523 2.55854 2.25391 0.730951
threshold=69.500000000000014 6.5000000000000009 5.5000000000000009 1.0000000180025095e-35 7.9769901441035733 0.66866923054392469 12.500000000000002
decision_type=2 2 2 2 2 2 2
left_child=1 -1 -3 5 6 -4 -5
right_child=-2 2 3 4 -6 -7 -8
leaf_value=-0.031172013434866211 -0.042902867639895079 -0.02452854433089105 0.034353836251323454 0.024686519404931211 -0.0087941623455330877 -0.039469799693405014 0.064543036540070903
leaf_weight=2.9625193476677003 2.3057203963398925 2.1877817139029494 1.904898293316369 2.4246324524283338 2.0822827741503716 2.012588731944561 4.567599356174469
leaf_count=18 18 14 10 14 12 14 24
internal_value=0.00292454 0.00922612 0.0175899 0.0251976 0.0375381 -0.00236653 0.0519703
internal_weight=20.448 18.1423 15.1798 12.992 9.07451 3.91749 6.99223
internal_count=124 106 88 74 50 24 38
is_linear=0
shrinkage=0.05


Tree=42
num_leaves=10
num_cat=0
split_feature=7 41 0 18 0 1 39 35 2
split_gain=2.21015 2.77727 2.16462 1.79884 1.90375 2.16975 1.85768 0.660905 0.40056
threshold=1.0000000180025095e-35 7.555642392404617 55.500000000000007 1.0000000180025095e-35 5.5000000000000009 13.500000000000002 58.000000000000007 144.50000000000003 13.500000000000002
decision_type=2 2 2 2 2 2 2 2 2
left_child=1 2 3 6 -5 -6 8 -7 -1
right_child=-2 -3 -4 4 5 7 -8 -9 -10
leaf_value=-0.05531071958817764 0.057518354154765076 -0.050798677262477332 -0.036946619730764373 -0.024977429229578355 0.0033067769126855157 0.07374476676438442 0.029713663449503987 0.02679189341239065 -0.011254891042087642
leaf_weight=1.4428453370928811 1.5959909856319416 2.4353304058313361 2.4008426815271369 1.3871801942586941 3.4179810956120473 2.8049072474241257 1.4976497888565061 1.7996403425931928 1.3964379876852033
leaf_count=10 10 16 19 9 19 13 8 10 10
internal_value=0.00277429 -0.0019425 0.00538546 0.0133533 0.0257215 0.035303 -0.0123297 0.0574161 -0.036464
internal_weight=20.1788 18.5828 16.1475 13.7466 9.40971 8.02253 4.33693 4.60455 2.83928
internal_count=124 114 98 79 51 42 28 23 20
is_linear=0
shrinkage=0.05


Tree=43
num_leaves=9
num_cat=0
split_feature=7 41 0 18 6 0 1 35
split_gain=2.07528 2.57677 1.99376 1.65226 1.80933 1.75163 2.02301 0.633097
threshold=1.0000000180025095e-35 7.555642392404617 55.500000000000007 1.0000000180025095e-35 1.0000000180025095e-35 5.5000000000000009 13.500000000000002 144.50000000000003
decision_type=2 2 2 2 2 2 2 2
left_child=1 2 3 4 -1 -5 -7 -8
right_child=-2 -3 -4 5 -6 6 7 -9
leaf_value=-0.054723803447114298 0.056586979480257274 -0.049555436253340961 -0.035846941324109184 -0.024007046422329807 0.010718699528973441 0.0031437645183055268 0.071847615240194618 0.025635418556023238
leaf_weight=1.508173510432244 1.5441112592816342 2.3756452053785315 2.3550197109580031 1.3754361346364055 2.7719350233674049 3.4205683693289757 2.7393269687891006 1.7915079891681669
leaf_count=11 10 16 19 9 17 19 13 10
internal_value=0.00266554 -0.00188599 0.00516179 0.0128339 -0.0119225 0.024731 0.0339762 0.055603
internal_weight=19.8817 18.3376 15.962 13.6069 4.28011 9.32684 7.9514 4.53083
internal_count=124 114 98 79 28 51 42 23
is_linear=0
shrinkage=0.05


Tree=44
num_leaves=11
num_cat=0
split_feature=20 23 9 18 0 40 32 32 6 20
split_gain=1.91294 2.33387 1.82784 2.71373 1.96358 2.08432 1.11882 0.392175 0.346026 0.127251
threshold=-6.7013730156449753 1.0000000180025095e-35 0.61349396373102427 1.0000000180025095e-35 53.500000000000007 7.7849394985156621 0.049791458805689255 0.043137294330595606 1.5000000000000002 -0.58979032139040144
decision_type=2 2 2 2 2 2 2 2 2 2
left_child=-1 -2 6 8 5 7 9 -5 -4 -3
right_child=1 2 3 4 -6 -7 -8 -9 -10 -11
leaf_value=-0.041221920762517607 -0.044687512451791318 0.033369667543946789 -0.054398935967982731 0.025841562641131233 -0.030945856549867312 -0.0083643112684102534 0.0040498348620165246 0.067349669206360555 -0.012951849067644509 0.068137553250803159
leaf_weight=2.0826728940010097 1.7254661992192311 1.689107783138752 1.5615409538149863 1.66708610206842 1.4332858324050901 1.9569659158587454 1.947980001568794 2.2842773571610451 1.4037876203656194 1.8438834771513912
leaf_count=16 11 10 12 10 12 11 12 11 9 10
internal_value=0.00257034 0.00826642 0.0146133 0.00160736 0.018355 0.0314629 0.037708 0.0521416 -0.0374716 0.0542675
internal_weight=19.5961 17.5134 15.7879 10.3069 7.34162 5.90833 5.48097 3.95136 2.96533 3.53299
internal_count=124 108 97 65 44 32 32 21 21 20
is_linear=0
shrinkage=0.05


Tree=45
num_leaves=10
num_cat=0
split_feature=8 0 4 27 1 19 41 38 41
split_gain=2.41939 2.52798 3.0215 1.93398 1.57655 1.50976 0.861206 0.660663 0.0151809
threshold=1.0000000180025095e-35 22.500000000000004 6.5000000000000009 1.0000000180025095e-35 13.500000000000002 64.580288646982098 5.675326422076254 3.5000000000000004 5.8533136848028633
decision_type=2 2 2 2 2 2 2 2 2
left_child=1 3 -3 4 7 8 -7 -1 -4
right_child=-2 2 5 -5 -6 6 -8 -9 -10
leaf_value=-0.014182920909980579 0.06048790844056761 0.031683217291901579 -0.033173296691778743 -0.02674279957763739 0.05267757497750275 -0.026684862312285847 0.020303980528894258 0.02914350715001084 -0.061682621777258001
leaf_weight=1.8602094426751192 1.647659771144389 2.2115485668182355 1.5420198589563368 1.6857687830924986 3.6869858652353287 2.3825032413005833 1.4139222055673597 1.4282443076372144 2.6022977456450462
leaf_count=14 10 12 10 11 18 16 9 8 18
internal_value=0.00417081 -0.00079074 -0.0178912 0.0186583 0.0305601 -0.0325421 -0.00782938 0.00346379 -0.0532844
internal_weight=20.4612 18.8135 10.1523 8.66121 6.97544 7.94074 3.79643 3.28845 4.14432
internal_count=126 116 65 51 40 53 25 22 28
is_linear=0
shrinkage=0.05


Tree=46
num_leaves=10
num_cat=0
split_feature=8 23 27 49 0 39 28 36 20
split_gain=2.27021 2.39472 3.1874 2.87903 2.2754 3.03688 1.83345 1.10448 0.994084
threshold=1.0000000180025095e-35 1.0000000180025095e-35 1.0000000180025095e-35 1.0000000180025095e-35 22.500000000000004 13.500000000000002 1.5000000000000002 52.500000000000007 -4.058363067779986
decision_type=2 2 2 2 2 2 2 2 2
left_child=1 -1 3 4 8 -6 -7 -4 -3
right_child=-2 2 7 -5 5 6 -8 -9 -10
leaf_value=-0.055857523951021393 0.059422074708375738 0.0092909512458688674 -0.0028677746003102095 -0.037674733024121547 -0.047727631172331059 -0.0088775369801097556 0.056716140859516956 -0.057783162783572997 0.063898663800532815
leaf_weight=1.6987622082233489 1.5964484587311734 1.3929846286773679 1.9507765993475903 1.8734803274273879 1.7591325119137762 1.6339266896247866 2.3604672700166702 2.0786747112870216 3.8566374778747559
leaf_count=13 10 9 12 12 11 11 12 16 20
internal_value=0.00400606 -0.000774041 0.00476277 0.0171669 0.0272101 0.00434323 0.029102 -0.0331211 0.0507877
internal_weight=20.2013 18.6048 16.9061 12.8766 11.0031 5.75353 3.99439 4.02945 5.24962
internal_count=126 116 103 75 63 34 23 28 29
is_linear=0
shrinkage=0.05


end of trees

feature_importances:
total_changed_lines=28
test_coverage_change=25
author_total_mrs=22
max_method_lines=21
author_revert_rate_30d=20
max_method_complexity=19
author_days_in_repo=19
has_only_doc_change=18
code_lines_ratio=17
added_lines=16
has_only_test_change=15
has_unit_test=14
avg_commit_size=14
deleted_lines=11
commit_message_quality=11
repo_importance_score=11
max_file_changed_lines=10
author_avg_mr_size=10
max_nesting_level=9
ci_build_passed=8
ci_unit_test_passed=7
code_files_count=6
unit_test_coverage=6
test_to_code_ratio=6
security_vulnerabilities=6
code_smells_count=6
test_files_count=5
modified_methods_count=5
author_merge_rate_30d=4
is_first_mr=4
changed_files_count=3
new_test_count=2
ci_lint_passed=2
lint_issues_count=2
commit_count=2
has_api_change=1
is_maintainer=1
has_todo_or_fixme=1

parameters:
[boosting: gbdt]
[objective: binary]
[metric: auc]
[tree_learner: serial]
[device_type: cpu]
[data_sample_strategy: bagging]
[data: ]
[valid: ]
[num_iterations: 1000]
[learning_rate: 0.05]
[num_leaves: 31]
[num_threads: 0]
[seed: 2024]
[deterministic: 0]
[force_col_wise: 0]
[force_row_wise: 0]
[histogram_pool_size: -1]
[max_depth: -1]
[min_data_in_leaf: 10]
[min_sum_hessian_in_leaf: 0.001]
[bagging_fraction: 0.8]
[pos_bagging_fraction: 1]
[neg_bagging_fraction: 1]
[bagging_freq: 5]
[bagging_seed: 4542]
[bagging_by_query: 0]
[feature_fraction: 0.9]
[feature_fraction_bynode: 1]
[feature_fraction_seed: 13336]
[extra_trees: 0]
[extra_seed: 29642]
[early_stopping_round: 0]
[early_stopping_min_delta: 0]
[first_metric_only: 0]
[max_delta_step: 0]
[lambda_l1: 0.1]
[lambda_l2: 0.1]
[linear_lambda: 0]
[min_gain_to_split: 0]
[drop_rate: 0.1]
[max_drop: 50]
[skip_drop: 0.5]
[xgboost_dart_mode: 0]
[uniform_drop: 0]
[drop_seed: 2449]
[top_rate: 0.2]
[other_rate: 0.1]
[min_data_per_group: 100]
[max_cat_threshold: 32]
[cat_l2: 10]
[cat_smooth: 10]
[max_cat_to_onehot: 4]
[top_k: 20]
[monotone_constraints: ]
[monotone_constraints_method: basic]
[monotone_penalty: 0]
[feature_contri: ]
[forcedsplits_filename: ]
[refit_decay_rate: 0.9]
[cegb_tradeoff: 1]
[cegb_penalty_split: 0]
[cegb_penalty_feature_lazy: ]
[cegb_penalty_feature_coupled: ]
[path_smooth: 0]
[interaction_constraints: ]
[verbosity: -1]
[saved_feature_importance_type: 0]
[use_quantized_grad: 0]
[num_grad_quant_bins: 4]
[quant_train_renew_leaf: 0]
[stochastic_rounding: 1]
[linear_tree: 0]
[max_bin: 255]
[max_bin_by_feature: ]
[min_data_in_bin: 3]
[bin_construct_sample_cnt: 200000]
[data_random_seed: 6648]
[is_enable_sparse: 1]
[enable_bundle: 1]
[use_missing: 1]
[zero_as_missing: 0]
[feature_pre_filter: 1]
[pre_partition: 0]
[two_round: 0]
[header: 0]
[label_column: ]
[weight_column: ]
[group_column: ]
[ignore_column: ]
[categorical_feature: ]
[forcedbins_filename: ]
[precise_float_parser: 0]
[parser_config_file: ]
[objective_seed: 12337]
[num_class: 1]
[is_unbalance: 0]
[scale_pos_weight: 1]
[sigmoid: 1]
[boost_from_average: 1]
[reg_sqrt: 0]
[alpha: 0.9]
[fair_c: 1]
[poisson_max_delta_step: 0.7]
[tweedie_variance_power: 1.5]
[lambdarank_truncation_level: 30]
[lambdarank_norm: 1]
[label_gain: ]
[lambdarank_position_bias_regularization: 0]
[eval_at: ]
[multi_error_top_k: 1]
[auc_mu_weights: ]
[num_machines: 1]
[local_listen_port: 12400]
[time_out: 120]
[machine_list_filename: ]
[machines: ]
[gpu_platform_id: -1]
[gpu_device_id: -1]
[gpu_use_dp: 0]
[num_gpu: 1]

end of parameters

pandas_categorical:[]
